dim_0,mean,std,median,5.0%,95.0%
0,0.005594194815523482,0.10670640406769137,0.007349605609649496,-0.1649422844808774,0.17131578856544669
1,-0.0038075656991580784,0.1007018052835918,-0.0031461719375065274,-0.16056319989387666,0.16313260671927493
2,0.0030412288945042654,0.09552867652921786,-0.004628400279684381,-0.15214508569412666,0.1559183681032175
3,-0.002104270588746575,0.1109189356117338,0.0005295503736128843,-0.16920357672894412,0.17160823786126445
4,-0.007216825329619357,0.10929279082840682,-0.007155711412129036,-0.1817099266124389,0.18080905838769265
5,0.0075074996677717805,0.09967890328992841,0.010608635571105954,-0.16061070686812706,0.16887122669175977
6,0.003953548956970748,0.10032038316459431,0.006125613597064138,-0.1594717351231472,0.1678296376377992
7,-0.002372760952401312,0.10114209287975978,-0.0033804624134725777,-0.18850801963302197,0.17286297503281384
8,0.0027181230232429156,0.08980678027468147,0.01175794605794244,-0.13633603125987775,0.1258453041145632
9,0.004166271299740812,0.1017012294821778,0.0061321150055199565,-0.1730726747597348,0.18685036945515018
10,-0.0006300136003412228,0.10479689741758771,-0.001694893813020776,-0.15910857817939636,0.17751716564204228
11,0.001892430293245008,0.1066819756308943,-0.00018285902758142364,-0.19076388464038094,0.17931572261035822
12,-0.002456246416721661,0.10937815103867113,-0.0054867794753098754,-0.18033162255739182,0.17401122287142315
13,0.0038704775061120474,0.11605987031499877,0.0004325605056453087,-0.17799607501235018,0.18975940889076068
14,0.001722395547625507,0.1044655690151483,0.003269636145503426,-0.15509569654578811,0.17391156688317758
15,-0.0026764010707254165,0.11171235258766801,-0.005551733288947974,-0.1855311313783,0.18904279328067392
16,-0.0038123879269213214,0.10439333577209016,-0.008851583353739144,-0.1701455451749445,0.16917212691802005
17,-0.008404134973855183,0.10149897880067997,-0.007079831878535863,-0.1737135090373506,0.1551667837496
18,0.0016541089331926105,0.10130570455125094,-0.00044861051239319005,-0.16820196196247683,0.15470470039023979
19,0.0018405339805947088,0.10844881597366164,0.0038868686303027795,-0.18557463021410237,0.17589740757737551
20,-0.0036758145973657718,0.11369883299580284,-0.003379353251778279,-0.20788281662152863,0.19276689229174368
21,0.001091041884383554,0.091722149653557,-0.0017589630733982494,-0.159057517647664,0.15543613233608972
22,0.007122185308481635,0.09965270837406942,0.007212937935866635,-0.1605205623206008,0.17997705723511245
23,0.0024233047917672857,0.10589141413467405,0.0023503008578665556,-0.16929912844379524,0.17754115750547747
24,-0.00236990664214269,0.1040910309438539,-0.004608114576040226,-0.16557367271946935,0.16241272399139375
25,0.004861351062492765,0.09972956482722309,0.0016322645876697974,-0.1478296766012649,0.16003611270877444
26,-0.0006714914499134295,0.1134544293617163,-0.0024933664508997562,-0.19404461472041962,0.1815233542285564
27,-0.0021353483352338294,0.0993328181285112,0.006909115273232853,-0.1736308026280557,0.14953981353606952
28,0.0011988693342823683,0.0977450131407336,-0.0012205820879481212,-0.15805078691254232,0.16292111600791967
29,0.00170623793581485,0.09146646586956939,0.004124190130383969,-0.14527707426477882,0.1392839560537307
30,-0.005161489723514502,0.09913659925309776,-0.007906043899276337,-0.16186139321476056,0.161534078952357
31,0.003922342304354213,0.10425121932752501,0.00592539701646105,-0.16700141220663575,0.1657557840898926
32,0.0041559994076202,0.10232578627603245,-0.0011832614140950236,-0.15538255431864878,0.17769779073112302
33,-0.0038678588739354926,0.09664286029299808,0.0034658015186228466,-0.15954148389441822,0.15365738996745998
34,-0.0014557912675515698,0.09129113391082712,-0.004722251966845528,-0.14520777066783386,0.14928037846434156
35,-0.00782352619655458,0.10392826792635654,-0.005957205053919918,-0.19462445826709038,0.14285776894360036
36,0.005287828663408037,0.09908891237102434,-0.0005671038169025005,-0.15966574320780483,0.1810369673313806
37,-0.0027105641512915955,0.10855784674486323,0.002414574402900975,-0.18728323314309528,0.16888690242234197
38,-0.0013767639840922257,0.10054094458315542,0.002183892447709234,-0.16481435816548717,0.16178021322378144
39,-0.001958956491330826,0.09271487558531968,0.004752675336094524,-0.1517157253540722,0.13009052064203888
40,0.002065578541241876,0.10147480286567949,-0.001774859850512165,-0.17206889705193565,0.17044293323896229
41,-0.003567613900062292,0.1071664674608895,-0.008193845381588582,-0.1734485407615615,0.15227340806770326
42,-0.0022174782999522247,0.10274664121155973,0.0020949855854517077,-0.18552347774268818,0.15716795610373807
43,-0.008918392961362119,0.10269639269081546,-0.015324811258661506,-0.17989670758858584,0.16294210986162713
44,0.0032761987508772837,0.10449291527592708,0.004175681972576141,-0.1622423241613098,0.1767620565048917
45,-0.000681773861965459,0.09455222540916944,0.003722851082954122,-0.15548520896009463,0.14597126325440768
46,-0.00046920335254163983,0.10543505250915797,0.004405484834202625,-0.16708588796463414,0.1727299705448262
47,-0.001685256431956086,0.08396999844427842,-0.0037664545826979223,-0.13552475664041827,0.13588621589432057
48,0.0020614822846867914,0.10950474361510476,-0.0012710457437238416,-0.16698185441855234,0.17259849909319086
49,-0.0067239798740832205,0.0989711044151415,-0.0038008940014714237,-0.16627223170974154,0.1546174499394669
50,0.0035616062768463676,0.09775031977972147,0.013450783054926248,-0.15713480576892788,0.1529358168246402
51,-0.006146057944015369,0.11075217965389388,-0.0014749872842810667,-0.19460501354829915,0.1800380257292545
52,-0.00564492994822593,0.0994364465908559,-0.0040102114852255235,-0.16348560272653098,0.15803626189995545
53,-0.005442733348666527,0.1140891565283536,-0.003101924347573581,-0.19594907810509393,0.18315477977080896
54,0.0010041960615777175,0.09207370073311642,0.006763309082938329,-0.16055815177879762,0.14227697712646206
55,0.006615089248141645,0.11410124547626714,0.014676298907094546,-0.19060102242447996,0.18463354022347592
56,-0.0009898303421750354,0.10942413162524367,0.0021609495818952092,-0.18684364297330203,0.17745290176786005
57,-0.0012478292494391052,0.1127531871209841,0.0010747584584289726,-0.19237594417193152,0.16943535541936083
58,-0.002161221224663768,0.10022353065032465,0.001627504278122846,-0.1620653031471788,0.15804996668620647
59,0.0033292273996605283,0.09764787858876059,0.00638988951277712,-0.14532665754030036,0.15027152154418408
60,-0.0048263023721413015,0.1092177090254553,0.002542424333158898,-0.1780625991880637,0.16770672251006902
61,0.0049362442754730725,0.09404158767869372,0.0077626065544080455,-0.14945608277808897,0.14850082332273207
62,-0.004399106339321765,0.09927138637025229,0.0018098195743242516,-0.16780849258914546,0.15799793302744372
63,0.008763655726091984,0.11122851485667676,0.007459827111504995,-0.187539735818517,0.2008794327929462
64,0.007138448644388375,0.10710111826006716,0.0006339759492538187,-0.17343392556243328,0.18032772182652776
65,-0.0028177390459624106,0.1045530121904715,0.0006467793572403987,-0.1755386819789936,0.18357840585040325
66,-0.010708817252413495,0.10938666825715047,-0.013763949072159633,-0.19699338571224842,0.1656230591869305
67,-0.0021785582516106296,0.10743234040977563,-0.004434617992064932,-0.18063579985198397,0.17797685847535574
68,0.003856414618885249,0.10503821528582473,0.008497602770052713,-0.16529983633088657,0.1656811535024558
69,0.012127703232284098,0.09701124313643858,0.008252560500991364,-0.14891244651539776,0.16159447054441037
70,0.0036242407247944076,0.10829108758742127,0.002995915979303071,-0.17853668123660546,0.17703003934472022
71,-0.0019498850375331126,0.09904891075570799,-0.0044578051434583646,-0.15495171914692044,0.1652380564547761
72,-0.005900455681613977,0.11619437381705824,-0.004336279162595551,-0.19191236398555167,0.18295239295926052
73,0.005933336695957845,0.10120718838727959,0.0010747060604297187,-0.15175729586121067,0.1654024701771198
74,-0.00391919189206928,0.10821298885508933,-0.0032127756051946624,-0.1766678123633094,0.1739025960221386
75,0.0017673177147654946,0.1044279252754468,0.0017324464575321635,-0.17281088123279895,0.16613511436214332
76,0.0009679890817238482,0.0930969090680332,0.0045820363915251485,-0.15986658917894261,0.16674736949021854
77,0.005195867239274497,0.08920907223454395,0.001329919276707122,-0.13469668626108672,0.1454937524075481
78,0.0001114228542261204,0.10413989707061763,-0.004967920078063009,-0.17360532618041738,0.16508000483398172
79,-0.0004949074288109732,0.10020394245971292,0.0013621799559302562,-0.1639688429806995,0.17630874342527458
80,-0.002385401189363425,0.10349589392442865,-0.0014321848195692965,-0.1601609065258391,0.15967187276326184
81,0.005004804346055318,0.09832414822510964,-0.0006590481071852452,-0.1522257232948275,0.1636165543042851
82,0.0018840964960309796,0.10548488900997995,0.0008526046933974864,-0.1640156707311161,0.17227820905783373
83,-0.0008038040763395829,0.0942147963658714,0.004878422705831662,-0.15731493776604988,0.15051933780010987
84,0.0026188570024535357,0.1030388036468731,0.003118571666887667,-0.1560342040745865,0.17191329955939214
85,-0.003514040161192332,0.09320246037763538,-0.002943663547390175,-0.1422788146526803,0.14201426874041076
86,-0.0021099241609473097,0.10318739045206093,-0.003047388398596719,-0.1608020033997602,0.17392101183861391
87,-0.005042134199202183,0.10209833716306572,-0.006979923833734526,-0.16877888668413965,0.1650160021690045
88,0.0010220860206940604,0.10078040090341543,0.008432194439156274,-0.1695878349935102,0.18048810982063382
89,0.002994349373145157,0.10411056960912836,0.0062089828818074864,-0.16473673978464487,0.15893505894900845
90,-0.0010268899181533294,0.09228393127835885,-0.004426519045770686,-0.15392578281415104,0.15626621946114685
91,-0.002177842050804283,0.0917863697130526,-0.0063402114508873935,-0.15216598885467572,0.14633823350573744
92,0.0015456301804518792,0.11084455224390824,0.012954027962005857,-0.19223195149332795,0.19320941919373008
93,0.0051133943169976905,0.10093185577530522,0.011277211497677747,-0.17252187762230126,0.15841181657727285
94,0.005552378273337341,0.10288426187237265,0.005091351558094341,-0.1677600715664429,0.17518627994865163
95,0.0021589324123853304,0.0965454390170377,0.009382227357908526,-0.1602039372165939,0.15413275993076625
96,-0.004285190672595889,0.10945858387233201,-0.009354368541725786,-0.1791464400588299,0.17445635461256778
97,-0.006385665636434065,0.09815465797447748,-0.012843278692986671,-0.16030075556202575,0.152137802657666
98,0.0023990565023069782,0.11222107611556871,-0.0028263334858729967,-0.17330683003038894,0.18477891034469784
99,0.005342838262354475,0.09466652152817591,0.005544149289344873,-0.142724914836153,0.16757886509698874
100,-0.004773776079815305,0.11258371330701024,-0.001920827292542482,-0.18205012208377913,0.18196417162886797
101,0.007218734258854937,0.09481095911456461,0.01202563473818162,-0.13890469254342394,0.17777421269577545
102,-0.0015775815287323422,0.09523758050305879,0.0013839136139405918,-0.165333148313488,0.14998155054326628
103,0.00725338108079468,0.10947294784457792,0.013971333721263763,-0.15696620397365882,0.1841624001659796
104,-0.0023713957631409347,0.0986221102047455,-0.002045254155950265,-0.1814446980785337,0.15963272899001787
105,-0.002797413995211411,0.10392853235001966,-0.00739781248450274,-0.16134743080949576,0.1637937705416612
106,0.001715110170443982,0.09990348590881164,-0.003107166325266912,-0.15767677897411536,0.1612569513661941
107,-0.0003923269079849805,0.10763733023079439,0.0001785476086429148,-0.17477936023796492,0.17321012006193895
108,-0.004853762848205415,0.09565786276269071,-0.0012142486704685663,-0.15730265804277077,0.14265585312923923
109,-0.006706269166118736,0.0995086260799806,-0.008635727401903964,-0.16311773608503902,0.1579712583484669
110,0.007134944778432953,0.09591276576782132,0.0020362886103741174,-0.14123772350614117,0.17416256189086024
