dim_0,mean,std,median,5.0%,95.0%
0,-0.00859816101898201,0.08866570985054299,-0.0015074495713987216,-0.15966695458714417,0.13956441090912597
1,-0.0019409479465041103,0.11652707250053627,-0.0022230267419660102,-0.17028214124996222,0.2000091820644888
2,0.0025368834649573003,0.09537718898819696,0.0008851596975923497,-0.16112340962775287,0.1607697781102394
3,0.003802692768127608,0.08885603187667215,0.002198618540560182,-0.13812386485001404,0.1552415561304424
4,0.0027145657990990365,0.10209466130047307,0.0010080637564336724,-0.1643318721210405,0.17354996526437844
5,0.010130856860158388,0.09409443779239919,0.006396762050100199,-0.1396655216124507,0.16463960813241116
6,0.0027315887572151826,0.0913765127669015,0.010591424405276351,-0.16297529114367762,0.1490060132488984
7,0.0049434412642031175,0.09811883203968624,0.01174518225295356,-0.16527308468932753,0.15620957285938872
8,-0.0011963029068567906,0.09214582790406259,-0.004833902306153798,-0.1569937652774778,0.1404372515941429
9,-0.010611882960417134,0.10296623156585542,-0.01323578799411933,-0.17382454028422975,0.15850911611986973
10,-0.0138264416076052,0.08732059304837377,-0.010410660427161031,-0.1461392644844963,0.13298692283517424
11,-0.0018294432256116455,0.10116711324788429,0.005170154446977342,-0.17327152450798225,0.14571542910563534
12,0.0020524091563471976,0.0992307249050179,0.008957435575549545,-0.15801269921963534,0.16842602940928858
13,0.004125368140395286,0.08797057768553654,0.006396156438672695,-0.1393808477551524,0.14653001693825082
14,-0.00015985856861385804,0.09606580654830939,0.0007570678931651413,-0.16489335028160024,0.16318107700974036
15,-8.320850719987304e-05,0.09766151109339764,0.007652171900809508,-0.1466092082000749,0.15153072437315263
16,-0.009984996404094811,0.10308297392612385,-0.011977103739931244,-0.1734616907003909,0.1538251951214428
17,0.004610382804929156,0.10049267570163127,0.0050058177733069975,-0.15443160901382055,0.16345461375978057
18,0.003017031540841918,0.0989183339417968,0.0039641945442772724,-0.16000392852223003,0.1577936026910163
19,0.0010677507814124566,0.09551630281896388,0.004867912659128927,-0.14484191651445352,0.153733832945616
20,0.002155249799368212,0.0923248542551648,0.0015176958338187295,-0.15246946735827777,0.14345326750594328
21,0.002389678793217135,0.1049686422133648,0.007843245752691049,-0.16001768607618672,0.1649173276678976
22,0.0008645245260193198,0.1290487473633933,0.004232615556833314,-0.2333649108209464,0.22218805300360078
23,-0.009364535995773294,0.0859453906983731,-0.010885165659073857,-0.14083742995831688,0.12927807392941812
24,-0.000348198227122528,0.09009459440704887,-7.445336082500902e-05,-0.15605161270085824,0.15104773924034542
25,-0.007313584729227519,0.08991347754872206,-0.006814173610090087,-0.14846376980758907,0.13378115939217178
26,0.005509707758933458,0.10379121179501878,0.005986759818009325,-0.16147218195994115,0.16331838161071527
27,-0.004265849436645459,0.10488273009073273,-0.004179198596761583,-0.1812326469764806,0.17065904228353698
28,-0.004516206132260266,0.08762218568863815,-0.001358714532391452,-0.1561580191150193,0.13957670509145342
29,-0.004725181075641366,0.1087631498633523,-0.0018949077260452967,-0.1800736516858062,0.17998350261608484
30,0.0018938308422863648,0.0993303886418571,0.0008808639367321688,-0.16113899549992639,0.17987309803083348
31,-0.0010715429009919954,0.11068707353378876,-0.010039186476054472,-0.17549009244746053,0.16595353838741994
32,0.005047234123792773,0.1127540519690926,0.004610909002023792,-0.18497320430998757,0.20212740354818087
33,0.007326008605782427,0.09358947115886285,0.00795244421278049,-0.14552300878680755,0.14482020417027416
34,-0.008660621189179216,0.11806763403283811,-0.023623644561705584,-0.1873370998630439,0.17350293580018786
35,-0.000345990541316864,0.0883891189575977,-0.00033923135424219494,-0.14437437944717404,0.13836353493635106
36,0.0008683704192993311,0.10376880604926143,-0.002192364772683165,-0.17311145356161659,0.18772053518705717
37,-0.0028277772926636404,0.10131255798138744,0.00603312135308627,-0.15911713622316412,0.1380164336722624
38,0.007767037053715924,0.09076345480914756,0.011908606842525257,-0.13342767507686196,0.1519127069058579
39,-0.0011986709109733443,0.09377460833353479,0.005550163768188846,-0.17556015351506596,0.1416708127796702
40,0.0006276274085711259,0.0927393486838457,-0.0017828622668644607,-0.15229282327233432,0.15011577297107784
41,0.0011411596163428803,0.0873534979410852,0.005724630102912756,-0.13270895860230153,0.13242823937579284
42,9.255249903739673e-06,0.09617415196214346,-0.0038729815673828076,-0.1559391692462607,0.149934777253647
43,0.006686938417205122,0.1000834525491649,0.0019989081936849767,-0.15024228005081297,0.17833774290892157
44,-0.0025207325084840816,0.09487734971163068,0.0007189094660505671,-0.14619666798843572,0.1387288856620123
45,0.006199531925412354,0.10196303514341808,0.004905271870025631,-0.15909803718504753,0.16903245651869703
46,-0.009339426519727518,0.1039943858040764,-0.01052606261795846,-0.1789435128209564,0.16278760506525347
47,2.168065448140414e-05,0.09262224992599863,-0.0013120998749262761,-0.14211285606831023,0.1454037315785723
48,0.005583619153839916,0.10602969051551174,0.01145035076430493,-0.1661908613846877,0.16263525592452138
49,0.0016855621410963313,0.09879598283957172,0.006982226169534865,-0.17287250685245564,0.1705334967280904
50,0.009147408837460297,0.09814927104983104,0.0074432269572920744,-0.14953237549716145,0.16524369340961295
51,-0.00016472984522417536,0.08010597487178199,0.0030863757215691444,-0.14331298488315908,0.1286044870084528
52,0.0032555349288180546,0.11109650019729213,-0.0052092123761418715,-0.16790445000405407,0.19507921911092282
53,-0.00344500660410489,0.09856967991275609,-0.004688821395001024,-0.17583297126675884,0.1468538353422908
54,-0.008130236449617792,0.10560251995101487,-0.01051524513506473,-0.1827475076488346,0.16797667653662002
55,0.002111792108700361,0.09796406266895456,-0.0030161723371419542,-0.14088884845148336,0.1576089617274661
56,0.0012016196686797848,0.09064615643490864,0.011108053047232981,-0.14121541362050832,0.12959930164153385
57,0.001803232622048843,0.102532109563726,0.01117749632505756,-0.15844927430956082,0.18361751325293893
58,0.005656665270708596,0.10428160764022495,0.004367041843334119,-0.16255926219391983,0.17993571694369787
59,0.001726335077003707,0.09226011695608043,0.0017625035812659589,-0.14736695624298943,0.1410281299354495
60,-0.0009516833225521917,0.10220511057494097,-0.0029639860965715494,-0.17529591632832073,0.18666287623110306
61,0.001068050641013692,0.10534302577180497,-0.0007051317149521852,-0.1739801313113682,0.16364705157399492
62,-0.0017550487132095855,0.10122839098173174,0.0063741990261877695,-0.16318023251292543,0.17079202476925728
63,0.0031310311171218307,0.10994821107463267,0.005914291421889881,-0.17943838098882856,0.17348665757054937
64,0.005444548783918466,0.10493123794479846,0.0031412333379417417,-0.171467301386946,0.18215220063679902
65,0.0014419787285238734,0.09078871816970582,-0.0018166665870395777,-0.13865082819025976,0.1337904667679621
66,0.004705214655940453,0.09924875232836741,0.004100074361752793,-0.15520994851030934,0.17592295708585298
67,0.005294473458670033,0.09159298288704631,0.006663311790565797,-0.1538913637020236,0.1495399671839348
68,0.0006783825036925843,0.09916122039666934,-0.003912987263867752,-0.15316087437733159,0.16441460654920018
69,0.002197074720453712,0.08719136288729597,0.0060630167522545495,-0.13745773591669735,0.1394615947368057
70,0.006858079004317861,0.08752810972489619,3.245966528902524e-05,-0.1299609625481762,0.15290664541893564
71,-0.00614319848319001,0.10994383480900008,-0.007103420815434237,-0.1825106647967585,0.17239894005395007
72,-0.0030651907242018254,0.08949210014206466,-0.004999395749058412,-0.14505747987440093,0.15631282568245974
73,-0.0021157860373387143,0.09438989113379741,-0.0042534999677968175,-0.1459592156403709,0.15045259664100422
74,0.00905468492533953,0.08982712643826422,0.005577554384723817,-0.1277512279464134,0.1646556354078615
75,-0.00048161113537322566,0.09288355584066933,0.0037204526822896236,-0.141901750964962,0.14119883329147537
76,-0.003170369212963698,0.10401851671444698,0.002020270177325026,-0.17287208995265213,0.16703565175632965
77,0.0019674937386140855,0.10166184773811941,0.005069723366943529,-0.16121204346971804,0.17335558027593284
78,0.0005151722601438942,0.10167393664447362,-0.0016867602750902488,-0.16856213048215185,0.17775221795698862
79,-0.005692789532471409,0.10792768268536475,-0.00866105296228021,-0.1795654261913136,0.16624723044713763
80,-0.008703915087362903,0.11478916982567341,-0.010114013415520071,-0.1847020906816067,0.16861734793312685
81,-0.0050211374786873235,0.1076766930921763,-0.010337088242281228,-0.17933588007747078,0.17243808562538893
82,0.005389720408900609,0.08751315814971945,0.002680012375364295,-0.13608707808637027,0.1518052605893662
83,0.006154756303179924,0.09647561729957942,0.013203433385918967,-0.1631884960534139,0.15437744062648004
84,0.0009303872608649798,0.10877220579323432,0.010022492097403505,-0.18446270237222503,0.1600331125620337
85,-0.0024066941335271607,0.10325859792481745,-0.0037644629409542513,-0.1702527756382979,0.16615754944182679
86,0.0004990221929812977,0.10693835828276306,-0.0038685363680407286,-0.16319883138666916,0.17963764141240549
87,-0.002472755480462439,0.099289303059349,-0.00797990698152821,-0.16802265292763466,0.1761806750887638
88,-0.006765681686517857,0.09972156407751592,-0.002212702693761161,-0.16513716749032373,0.14906022745309636
89,0.008604607624469457,0.10012089206372016,0.0011342415090800652,-0.13552703551804895,0.1853367935639721
90,-0.006475230696381118,0.11057861672807034,-0.012417170083111155,-0.18835649471270738,0.16521658500781636
91,-0.004323351399108019,0.09743166954821303,-0.002317980692360208,-0.16056517309158908,0.13977733795817124
92,-0.001801187423116688,0.09873797894628328,0.0002968280320154947,-0.16596309315028643,0.16362793254091085
93,-0.0017036236393165338,0.10711470714441948,0.007450030624877995,-0.18162876087292482,0.16513375257307564
94,-0.006562882260890566,0.11314980175598306,-0.00522704974733613,-0.17661884722565518,0.1558795543937762
95,0.003623840702559071,0.10129089321964843,0.011501013598883846,-0.1570456782052216,0.17448829384687167
96,0.0005371775174211802,0.1070822059281243,0.004084114098156975,-0.17635024374319674,0.16602882104192887
97,0.0027385610583089835,0.0921254214134722,-0.003515304556702273,-0.1300629892610522,0.15074192884573911
98,-5.001000043361251e-05,0.10205251391293865,0.0032100000164926156,-0.17934441184833755,0.1592727863334303
99,-0.009934830016889844,0.09437765112691658,-0.005215890205776971,-0.17925132554199394,0.12743014540672012
100,0.00100043383892003,0.07534218758104581,0.004320601714162771,-0.12268773168619315,0.10822740808449217
101,-0.0071172045987540275,0.0948577037602789,-0.01722284425829782,-0.1639761760762579,0.15579127998805584
102,0.002512544240234073,0.08914981092801354,0.004008952924499574,-0.1454684511964635,0.1449326217711142
103,0.00558289880967366,0.092140546648286,0.009426293726575254,-0.15381305785105123,0.15043800725069995
104,0.0012699087124213543,0.09073787057272309,-0.002367568263220535,-0.1434348562814435,0.1550163625267266
105,-0.012379355164724899,0.09283201628289646,-0.005591111080989371,-0.17448202763937962,0.1355776449995849
106,4.8274408987278166e-05,0.09271279204200003,-0.006439779068842978,-0.14257786635853867,0.1602360022582452
107,0.0028688520507637694,0.09422289989729306,-0.0006209207418399446,-0.14168604738682378,0.15826810168221958
108,-0.005924935206802727,0.10519465832174996,-0.004857116568322628,-0.1788397546720313,0.16114341838101862
109,0.003467695308258354,0.11003424343932407,0.00158650792520584,-0.1878164481564669,0.1910764875057697
110,-0.002014600453578703,0.10087534848688726,0.008143100415894737,-0.1691026614322528,0.14366686534212705
111,-0.0007105559632038406,0.08760208298404057,0.002998438510627131,-0.1464067053725529,0.15121498058059588
112,-0.006358329294469901,0.10290274977023377,-0.007201636514471931,-0.15669664237196784,0.15718311152225012
113,-0.0032792044014981125,0.08626557465684798,-0.005464675926022897,-0.1581404255967772,0.1334544988539424
114,-0.007617106530313354,0.10864562234207036,-0.00643062671617994,-0.17280205450451047,0.15965918331661302
115,-0.004312310790570697,0.10359380727236006,-0.002903411867224916,-0.16559650692233224,0.1678263087734365
116,0.0051527698391197405,0.10992023722592213,0.012722687469181806,-0.16636822597881135,0.174482520231016
117,0.002883253044880635,0.10268055483475107,0.005821639223446263,-0.1621027925653302,0.17227178982249905
118,-0.005532261966055957,0.09255825704697507,-0.0030442379786257603,-0.17676946214168385,0.14377638358633954
119,-0.0025544078478382803,0.09927398839773578,0.0029787771796216727,-0.17280847825369705,0.15568557839782243
120,-0.0056282793211788005,0.1039946342513806,-0.0016635022612004721,-0.19838680434559156,0.1607401131833688
121,-0.0026598125794603804,0.09160948412049152,-0.005162739377242139,-0.14523776039301542,0.1404354987535523
122,0.010061316434454117,0.09664115296707446,0.010071342792661388,-0.14588269463241113,0.1727819335721067
123,0.0008282503434319838,0.1176246385895695,0.0011304126123550585,-0.17960785162842124,0.20315507729640572
124,-0.006874463371329106,0.11040986463624994,-0.013436632869591174,-0.1720879736371824,0.17917463480670542
125,-0.007451367225441997,0.097537878198107,-0.006841554816723813,-0.16382450894357367,0.14012193153724775
126,0.006317515103173915,0.09767865956430509,0.010827245498675841,-0.15445517348497587,0.16492180198028186
127,0.0032637172801884234,0.0888299277095715,0.00597174557708891,-0.1448727490265791,0.13199469557551272
128,-0.0036582689723811783,0.09661592792727886,0.000971535956756716,-0.15350377706619667,0.16247102873371713
129,0.0036637348225307055,0.0950765223060925,-0.0006661833887330411,-0.14262652361544434,0.15686672327665935
130,-0.0004355215483095218,0.10755198846391521,-0.0021585116777474113,-0.17720245306843746,0.17663326550487973
131,-0.0036676320293393405,0.0817572571973888,-0.0004637468892354848,-0.13822505516164513,0.12398542896982971
132,0.002156069650766915,0.09637305497692944,0.00072835548087315,-0.15445697207486397,0.16843263196214814
133,3.2962947751445616e-05,0.0864405567194256,0.00270939435002492,-0.14946041140189972,0.13556761801891978
134,-0.007427650522801976,0.09526285167694973,-0.011006123111425428,-0.1534203841133302,0.15666917605485195
135,-0.0021383732786214387,0.09179248291691856,-0.004025133791879279,-0.14939943934785183,0.1283121275836045
136,-0.00043545863598644694,0.09954502105582062,0.0029619415499181913,-0.17102938214728267,0.16112697929583436
137,0.0004387314218017314,0.09497500148448576,0.00933191157821334,-0.1570204715924973,0.15055007995516673
138,-0.005888973806474313,0.09428492506334127,-0.008034418228440988,-0.1585277780448279,0.14173343114487522
139,0.0009785259348904767,0.08809007685387617,0.001477983063074789,-0.14278449413869582,0.12958680825434954
140,0.008218827488773972,0.10606333596465611,0.009327115374588597,-0.18508711854738122,0.17972948344402037
141,0.0011846833689903727,0.08990067302389242,0.0026644989539197023,-0.13657239730263093,0.14018656060965898
142,-0.0013829302150890005,0.0838890091344748,-0.00043871285910859867,-0.14092306903913107,0.1421045676091829
143,-0.005165258324863435,0.09096896897621849,-0.004443989823457855,-0.15803289512299423,0.1427797249054782
144,0.004403617421434338,0.10249453147255203,-0.002543591732608869,-0.15860413190071773,0.1618526731819756
145,0.009753760696280258,0.09627284829972886,0.005629769770285172,-0.14071723286077656,0.16748109052980925
146,-0.005481764756387569,0.0957744486803992,-0.0017985621646411656,-0.15891350315422614,0.1520202505022362
147,0.007132851941763952,0.09828477590494944,-0.0010253302875882905,-0.14180996760795983,0.1713820334389981
148,-0.00469044932515066,0.10334393928136873,-0.00427358722314199,-0.1897644570389015,0.16155467698927914
149,-0.003893859348172151,0.09113358182545597,0.0028649359838638978,-0.15061367535026493,0.14427876093640324
150,0.0007631477052989867,0.10609647742075028,-0.0012564937974637205,-0.1732390443335668,0.15448786630346728
151,0.005660330552693514,0.09677065595125219,-0.002785038188327354,-0.1557886857947886,0.16398654027720014
152,-0.00186496173470838,0.1057625348408275,-0.008160031247378408,-0.17617159605513522,0.15591663647653098
153,-0.0014949583267841432,0.1107036178430812,-0.002120600588875014,-0.1739654876924293,0.18576465961854477
154,-0.002147454536960773,0.10058168885794133,-0.010422040160657996,-0.18153985313172427,0.1794242598499689
155,0.00849331656114087,0.09728961104162369,0.00831656829899743,-0.1588278055470492,0.15318797808468682
156,-0.0034629328313382167,0.1046922150048956,-0.0018492454534408925,-0.16613457043648466,0.19042350819038553
157,0.005106822670397436,0.0824053498058384,0.011959355937914062,-0.13347653915234226,0.12715634272374354
158,-0.011446731366025571,0.10136682205998904,-0.023659941662808576,-0.17665599376430544,0.1694835450851742
159,-0.0018872015217771738,0.08108670692319753,-0.002584516862015337,-0.1377378432594082,0.12819748866457403
160,0.005253127697494732,0.11053099136075337,0.003321761710441937,-0.18014660385555128,0.18860564284786477
161,0.015432891467209876,0.09323559240250646,0.009405760141290055,-0.126115858897005,0.18182019643866895
162,0.001749679594902442,0.09316776633065546,0.006835984878628977,-0.14182789694253886,0.15140789458911486
163,0.00280777508252786,0.10408550545727979,-0.0009835907331242092,-0.16574531243394766,0.1772214628944677
164,-0.004689329357982956,0.0967102317239627,-0.009093378433604554,-0.1638270132148937,0.15669382796732603
165,0.007531672808799117,0.08683302432694938,0.0006755376830206675,-0.13445748457669363,0.15292421624838595
166,-0.0005254680522391443,0.09570654560428371,0.0008764697704607673,-0.1496048290361763,0.15004158400051007
167,-0.003806805331103804,0.09934636572480397,-0.00274328838224813,-0.15918390814360983,0.1585613445754003
168,0.0009781457379729355,0.1024617843718104,-0.0028767969891392714,-0.16131380617231386,0.16119289008511545
169,0.000694138344051794,0.09511648752564333,-0.011627993216216614,-0.1435085228168931,0.14728051961001548
170,-0.0020159476761036476,0.0978537700563807,-0.007477883960802817,-0.14948290240816983,0.16665764652477907
171,0.003131892476556163,0.11459758571731214,-0.0015046521199256434,-0.18309301445217224,0.1884776830744616
172,0.003511512544163425,0.09042280114004597,-4.009839782749655e-06,-0.1387122441733158,0.1529594521602252
173,0.002777592276065669,0.0826780766175672,-0.001004649348888235,-0.12510859422119322,0.146210854537049
174,-7.552083792858764e-05,0.09658570879806318,-0.0004161821203163492,-0.14296056771132223,0.1460476319486829
175,0.0010680385078337782,0.09739552081654289,0.007178182629807847,-0.15883806950561125,0.15442513807830652
176,-0.0028310553442914576,0.10313594874284522,-0.008225840140642985,-0.1641771829756627,0.16976959329032512
177,-0.0021602644473704773,0.09005429848297539,-0.0032355508010832867,-0.14410760986105053,0.13709640856644406
178,-0.008076151847499536,0.092381428651549,-0.008367335065538273,-0.14830108619108479,0.15476177209645706
179,-0.01127521784896508,0.10106591304292206,-0.008391237790319547,-0.16200129353190484,0.14614988680041785
180,0.004872051698214641,0.09986159126458333,0.006217070823676566,-0.16901724035396076,0.17843347213671432
181,0.002481327792593849,0.09497514790198988,0.0053626953551850435,-0.14361209271059652,0.14449552378729874
182,0.0021281893814273653,0.08604145143523553,0.0032423167268199942,-0.13113538024646662,0.13404416435125976
183,-0.004298997026928687,0.09636610141558617,0.0014356168476328795,-0.15395986410681037,0.1512892523857588
184,0.0005850988962251128,0.10574917550517947,-0.002616094392962556,-0.1696342158944179,0.17030309291364507
185,0.0017211846691653346,0.09718671833926582,-0.008189333188264992,-0.15538995889282697,0.16785065821104472
186,0.0005602624869709946,0.0918449036606186,0.001674120176503112,-0.15426637703519347,0.15153775896788427
187,0.0017013467409462803,0.09915074300992525,-0.0001488642063708247,-0.1568697725789118,0.16204582479868376
188,-0.003051421784691868,0.08571185918417303,0.0008977953087874645,-0.14293313677849687,0.14104696477592243
189,-0.006382030199538763,0.09843504401408995,-0.015953668708594246,-0.16743467203392148,0.15317304472151183
190,-0.00010771447959748909,0.10594204747510103,0.005116955614903963,-0.17792000837581176,0.165199491251563
191,0.0002667329572003754,0.10258548082683629,0.005138537885521392,-0.16015508861959432,0.1716645558163615
192,0.0069291665103426055,0.0947386977585349,0.003063788078571221,-0.14860700218289966,0.15997526479391727
193,0.0024016072448177004,0.1050977182414688,0.0016256900020285596,-0.1529638485101383,0.15838443816075728
194,-0.005232664050597702,0.09354915610479787,-0.00292244732429561,-0.173916471272249,0.14189694213998086
195,0.002212222202548107,0.10500492406950346,0.009059799361687073,-0.17497858311831926,0.17162672733959072
196,0.00993922703990456,0.1093171477369664,0.011369563025308501,-0.16514712898920933,0.15907198523896324
197,0.008874307155907707,0.08819367304537591,0.00767648352007603,-0.11997350830795774,0.13610066650162073
198,0.0055068640312109975,0.10555949407702037,0.007158428669037596,-0.14590409289573192,0.15702337558735435
199,0.0031147972377791764,0.09228628004832025,0.002737442136723357,-0.14337242816742818,0.1562950561609027
200,0.0034702383492496254,0.0853950209455175,0.0002605047702513413,-0.14333598827984942,0.13667486938201776
201,0.002266255417150469,0.09980044066633575,0.0027093148358207334,-0.15245301445012802,0.16270455670796752
202,-0.00770231953604866,0.10119385353894593,-0.012737561605632493,-0.17592837005733739,0.14291259054281727
203,-0.005447115423336746,0.11252649055092996,-0.0044229798021082475,-0.1970642200141815,0.14745007324415962
204,-0.0022864764222429654,0.08582287656245184,-0.0008264489312013647,-0.16237838932386364,0.11912955186632439
205,0.0018447366841426983,0.10632570355342258,0.01252432971283086,-0.16301085261922538,0.16038098538118448
206,0.004062753764443226,0.10267379706658152,0.002105865856396546,-0.14528503123994144,0.17119628233752518
207,0.006909387394402701,0.0973273061324954,0.005845056988370418,-0.15502136551332132,0.16012835525316416
208,-0.003949813466431778,0.09188353999966976,-0.010887154779304697,-0.1551453212872777,0.14326393617006944
209,-0.00537945739375174,0.1090580396795183,-0.008764672293746386,-0.17044100944349494,0.16912812014587583
210,-0.002578457763840628,0.10601045508842774,-0.01169754111169551,-0.17277962808062683,0.17289064932865372
211,0.005575742196899675,0.09469070471110223,0.00699067092157026,-0.1508566969109542,0.17228744102614327
212,-0.007173236308816275,0.09646564893646191,-0.008592544036426657,-0.15883540456544465,0.14842639148146922
213,0.004485199983441266,0.10410745139327866,0.004565936197462609,-0.16275391738696354,0.17353060036646026
214,-0.0025698174152142166,0.11940878089660895,-0.0035694666428548218,-0.18158113954572525,0.18388048468628326
215,-0.0016282429348650701,0.10848700193817502,-0.004267719996371926,-0.18780175985724307,0.16180704030041249
216,0.0018209194771803669,0.08951892421195287,0.004273429662379192,-0.1393468574728448,0.13747880674041973
217,0.003794263682842023,0.09473488603872623,0.005475161163317548,-0.1531342187393477,0.15779583503694528
218,0.005239086274791131,0.09339910546191979,0.005024406533588018,-0.14419180101209034,0.15820839916138157
219,-0.0050503508178473015,0.10637192966983883,-0.0032798520458837497,-0.18727724417365205,0.1530953696679965
220,-0.0028659240271846024,0.0949873584394113,-0.004252262677111322,-0.15709038659430766,0.15821672911808335
221,0.005379994491825552,0.11452737149751273,0.004252704961800322,-0.19255841837433532,0.1829477200088093
222,0.0003111822854283236,0.10270758530086328,0.000892540169365058,-0.16282831140928056,0.16973949638788488
223,-0.0017658385515749353,0.09133763204940332,0.008222012712616484,-0.15155457593859464,0.14376128096402335
224,-0.006960589280150615,0.08708218336204471,-0.007838720139818775,-0.1484997774601588,0.141474109120376
225,-0.002130520630038152,0.09839472157703222,-0.0016902170227318018,-0.16395420333779873,0.17171461518267034
226,0.002696120252047941,0.09272251811183255,0.00015686479660840104,-0.1440714598186866,0.1533817173942359
227,-0.0056033556199600095,0.0985801114263047,-0.0029373916850244505,-0.16288237748418238,0.1496448087797511
228,-0.006075177212713409,0.1133300328347965,-0.0012286575231760118,-0.19804997640575925,0.1597584303070249
229,0.004609680344820686,0.08984974460266938,0.0016694954957858538,-0.1506324445470175,0.15935696655158246
230,0.0010322906990073183,0.08921448946807718,-0.0033803975192379663,-0.14001045527762346,0.14807830074474532
231,-0.003427075083650194,0.09254853173059409,-0.011080199783201511,-0.13973622844470185,0.14665221665949937
232,0.0008622910541797056,0.11118589099506888,0.008513877941968555,-0.20061289285534237,0.1724291838945891
233,0.0059573228606456755,0.08747110830122537,0.0011583457759809256,-0.13489711628143364,0.15521490735647703
234,0.003352327073670261,0.09100803866544666,-0.005723849923623855,-0.1459117092423544,0.14939100594991275
235,-0.003346799806239636,0.09631718153842916,-0.005551376170784597,-0.16972039246996817,0.15300326568675662
236,-0.004884264119462131,0.0948865495071198,-0.00545055077681448,-0.167913613757434,0.1462546401232333
237,0.0028217846414236364,0.0976951066123409,0.009461506514640595,-0.1612522312689117,0.1535399126846654
238,0.0009713173296631575,0.12383733120557128,0.0034399825564234154,-0.17845848213676058,0.21172921828031346
239,0.0010316058166222409,0.09168678809837445,0.005890707515618409,-0.13786185346430604,0.14292982801991558
240,-0.001541506565547547,0.10447528605977817,-0.0045483749814689825,-0.16934550843010987,0.16424330521203198
241,0.004152791137009348,0.096352754930668,0.0067118353047495045,-0.153163810069231,0.16467609080153822
242,0.009468433590288454,0.10654745127477182,0.003665680635991332,-0.1576362904877358,0.16845989639178827
243,-0.0015252721024445546,0.08552706398540447,0.0012255402439325153,-0.15211758226168795,0.11598229696635595
244,-0.005097659234997403,0.10949972176219691,-0.007565078532001255,-0.16773003152672136,0.18005130050339602
245,-0.007810441490088899,0.08343648661361984,-0.011329696944278204,-0.13589913253146854,0.1265643265577924
246,-0.002642220084429082,0.0901499410240562,0.0013540613566499142,-0.15397047578440648,0.1437325533462336
247,0.0040115152720402005,0.09977918293138095,0.006516973349007418,-0.15165032069590859,0.16360242570463238
248,-0.012710337461864386,0.09166772909681399,-0.015147988574631475,-0.16701858327202102,0.14746496023703876
249,-0.0029049147061139314,0.11042521055179463,-0.003368970193839837,-0.19570228173273335,0.18093220332763812
250,-0.0007463194998302014,0.10058790322980621,-0.0023533733749390743,-0.17112259874401836,0.17016464669371048
251,0.007681544986925272,0.09623117683056431,0.008244587955611726,-0.16141092884083558,0.17813491153041064
252,-0.0026903442876737914,0.09988960459168825,-0.0031640956302814967,-0.1600474095855831,0.16630640970115265
253,0.0006093329875340975,0.09848779823545015,-0.0018584839349957613,-0.15028475936987634,0.15452533290303397
254,0.0019165349993533556,0.09701401660928981,0.0032688737390718656,-0.1711579024748491,0.19061921121979936
255,0.0008634135465917647,0.08764408537352135,0.0062074282152844665,-0.14972757956986743,0.14466742970018112
256,0.003481431891364768,0.10779060083002394,0.005386046631461362,-0.16049886730120583,0.178022665589851
257,0.0020378433324596042,0.0968221589651999,0.004100414523449448,-0.1558269195894006,0.14634910233754472
258,-0.001751473359214018,0.1004622672434605,0.00015662089030349868,-0.15806446831945753,0.1705327661390041
259,0.00789443505956024,0.10163566422660957,-0.0020269698891490755,-0.1505867233810442,0.17908560686305913
260,-0.0024138836797934654,0.10143607160575288,-0.0034725972655513305,-0.1906753165518004,0.15170691943731013
261,-0.006996429427584083,0.1000328603039138,-0.01582052877266402,-0.17195076207300725,0.1617907008228231
262,-0.001236969380149683,0.09966965443687946,-0.0012488248375641764,-0.14616157542994238,0.17004427099990593
263,-0.001369929883424196,0.09110919224082895,0.007501771036791017,-0.1565466891553409,0.1328839694081722
264,-0.0050626652789805635,0.10549563880955422,-0.008149843627460643,-0.18634753596490392,0.17122191060553077
265,-0.004006778018303331,0.095467700038249,0.0011041131940450772,-0.16946690402228762,0.16184205423730472
266,-0.0024714168608142677,0.10283884075555816,-0.0005397656467868537,-0.16278302920286924,0.16642495058774764
267,0.0009154789468577537,0.09848242167293406,0.006101347303935981,-0.14848620662046563,0.14710879060104043
268,0.0020380681393829254,0.09087407488967633,0.003070173460421546,-0.15322763279269636,0.15841601950665507
269,-0.0020098879324389925,0.10594004518530874,0.004055546180112564,-0.18669901973269337,0.16665703941371893
270,0.0038014534039867228,0.08616117928858584,-0.0003486672777432324,-0.12870971202931672,0.14965585447554297
271,-0.006423001767301639,0.09885326083537092,-0.006101818620583531,-0.16384098707887676,0.1443669366585438
272,-0.004661594460526453,0.10756717402669491,-0.003856457335879037,-0.1802323703225058,0.17638789372252656
273,-0.0029114894762620807,0.10053043393325228,-0.004311957795578443,-0.18483752231907324,0.1625740676997902
274,0.0035044426002222733,0.09778780429508051,-0.0018087288854306636,-0.15500458653629604,0.17806365831533824
275,0.0003353621811745752,0.09749392815399281,0.004134085661660864,-0.1620106982859384,0.15803725770300317
276,-0.00230740542044898,0.09499818410428845,0.0013279897599470629,-0.1453161867117594,0.14870205847021914
277,-0.0033393692758471615,0.09488853188803655,-0.0064466739396677845,-0.1555851890323268,0.15045009296887352
278,0.0021490010461440996,0.0990711210392134,0.016328152471696597,-0.16035000876518762,0.16447812476741933
279,0.0025125244658883816,0.0883689958003155,0.006057605445226391,-0.14258216456227588,0.14831957976818516
280,0.0005546903089662827,0.09492952432530159,-0.0018658095590243224,-0.1462298391472355,0.16731992528914433
281,-0.004539370856762034,0.09325647460934222,-0.002172244793624683,-0.1585047532398414,0.1476420380983531
282,0.004806968172537983,0.10657971117720329,0.006843306423958848,-0.16131309926525528,0.16882408329633125
283,-0.0017676622911567048,0.0981239907663964,0.0012215161080456403,-0.16142715661586723,0.15026190309311638
284,-0.002492326318276274,0.10897878576457036,0.0047838642285137276,-0.18862188000469154,0.18602897568268667
285,-0.003050949556807292,0.09054165852037875,0.00017232250463652992,-0.1489204479120412,0.1533233500936307
286,0.0029747326646259475,0.0925429944464555,0.00043297619820321215,-0.1521268438931892,0.14381919540083415
287,-0.001137548609863088,0.09079625129723484,-0.006682955388666799,-0.14235655083593193,0.15862113890596963
288,-0.0032499805485856383,0.08559435175043496,-0.006903619802772733,-0.1464973075054399,0.14599057489861295
289,0.005044295780421593,0.09849185629511148,0.004582110173068006,-0.15021170269387893,0.1650891975990895
290,-0.00434816820679332,0.0953976761841405,-0.006697829951238151,-0.16447778706387306,0.15889294370146242
291,-0.0043413645197225865,0.10916845343983338,-0.006504573552141785,-0.17869782985656735,0.17154560302178753
292,-0.0030500136535539764,0.09649122324154964,-0.006558260535060045,-0.1637142084174075,0.13968291488458448
293,-0.01221659253461019,0.10292601366350587,-0.016395824122426118,-0.19794518143852372,0.15685072176772613
294,0.0019166887487197168,0.09488565757989016,-0.0031391980300928767,-0.14456212221209278,0.15642672857904674
295,0.0029626615934691043,0.10180534343980038,0.0030925770632325663,-0.16038462312246127,0.16062694279496983
296,-0.0046232513332821875,0.09307716489970924,-0.004783607895539927,-0.15108845955244626,0.14629590557491018
297,0.0039412800981278836,0.11229551120864577,5.1121845194437117e-05,-0.16556264179070987,0.20922068278856826
298,0.010241326363934641,0.1001363661860697,0.017274642418730043,-0.15346812123979203,0.1685734710043701
299,0.001061623174253958,0.09525771769586426,-0.002397677750306409,-0.15541365542410446,0.14596641751753922
300,-0.0005410456580609513,0.08901506419695052,0.002904863029354552,-0.1448538443549943,0.15102999473322257
301,-0.0047595217836817975,0.10057651744444497,-0.0022244031665517305,-0.16649676966550614,0.16515519401093504
302,0.004358797424399815,0.09537653233975577,0.002270405724838,-0.140155200799997,0.1590280224053051
303,0.004840856215525814,0.10262029854837017,0.0018569328697045657,-0.15355637267321243,0.16444861771220512
304,-0.0020480481375262944,0.08939531036576072,0.0011430317416058421,-0.1648685800082799,0.14483290504373358
305,0.005625139734380501,0.0998110766019126,0.004499715340193389,-0.16624120848267948,0.18478313153318707
306,0.001803939084534524,0.11625072258798226,0.0018059632987126434,-0.19458359435910239,0.18965465146330207
307,-0.006143195054427466,0.1129601413665764,-0.004742070064303661,-0.20805524082310467,0.19150187049815523
308,0.006053605958601872,0.10874262813343036,0.0031493297036812155,-0.19551027978269828,0.180664218034214
309,-0.00112540108611557,0.10048588152727594,-0.004986202771446854,-0.15095190738531292,0.1709602732945235
310,0.004357383774248364,0.10153318984961894,0.0034448690272109476,-0.16160374026831809,0.16917846289377328
311,-0.0019808458204252995,0.0938088887595002,-0.0005627101168248268,-0.1616980424174077,0.1401344716558165
312,-0.005569979232753007,0.09505343070614744,-0.0017364944294878167,-0.14607108316616546,0.13944043209232412
313,0.004777617495998967,0.09995969089036072,0.004814750122612129,-0.15556261417586004,0.1609873458047323
314,0.006114874474524863,0.09671409528552134,0.0008296209841612628,-0.1393889357077945,0.17925416010519796
315,0.012080854534552356,0.09645249248420941,0.012807170321622978,-0.14893374053871467,0.17285751915485414
316,0.001635736971876594,0.08719376605105134,0.0067854788646258156,-0.14623945765980437,0.14261132433392157
317,0.0005414598932963733,0.09444776583088457,-0.0015827708013946896,-0.15552626819577614,0.15626406785879896
318,-0.00046427566348714933,0.08953527528030444,0.00025047734245454837,-0.1477399888917691,0.13464687175650186
319,0.003715873093909158,0.10417004492368451,0.001749836033448509,-0.16184025173264693,0.16935350630702697
320,0.0003500139575338565,0.10060598163579217,-0.003187568995261791,-0.16748822987307355,0.1655254658945512
321,-0.003153436379340338,0.09512530110641199,-0.007962255457187664,-0.14411864501616642,0.13888880315514235
322,0.0024069218071755723,0.09245408345716692,-0.0014662514588640696,-0.1482353579130462,0.16389275477516346
323,-0.006712117998255495,0.08529460138561902,-0.0003502888108418469,-0.158822029712962,0.13158336690197492
324,0.003057081487600487,0.08804774570024308,0.00526083832464117,-0.13459836641771145,0.1378766825754295
325,0.0011435096744146145,0.10171151279697362,0.006559699365188857,-0.18309996421365887,0.1773865084113881
326,-0.0006411578041553427,0.08158059263105642,-0.0010891679065278086,-0.13382818473518174,0.12581001006198317
327,0.001018051612125153,0.12297519576572846,0.011956220302158,-0.1847675947778402,0.1920753927264442
328,-0.003658452200989932,0.09154598384712326,-0.017819476854773142,-0.1311997510089592,0.14109992826656403
329,0.0026200325387988515,0.08807108353744372,0.007079926532470642,-0.14026689166042663,0.14900391201497776
330,-0.005407826041878191,0.10547740403005795,-0.004328338079317625,-0.1714157918572469,0.15980953614799856
331,-0.0010262569732704214,0.08962714031826081,0.000489940108834008,-0.1551147128808506,0.15951914409962223
332,0.00181098743097518,0.09512841712274811,-0.00304858021399757,-0.1505366454765095,0.15208805958999644
333,-0.008156562363057382,0.11022251519769878,-0.005509373997342469,-0.19584378192333682,0.18005637981284353
334,-0.008149455884032635,0.0853884548708572,-0.006756560304007489,-0.1331548880367405,0.12992792384073545
335,-0.0014065094558857439,0.0876622738618803,-0.006417457499567541,-0.12679810722762147,0.13653674816008088
336,0.00596333593985637,0.1080706938337432,0.011028689454265453,-0.1625017151239475,0.1880761494764548
337,0.0006218044972370488,0.0987879421923107,-0.004470004957503263,-0.15025332163466573,0.15345041004854554
338,0.004112418230570215,0.10780245318167331,0.001974326314306267,-0.16640573152057705,0.17620271722870726
339,0.004339357006154246,0.09910417209024397,0.008818413023999813,-0.15798884919650508,0.15684560422645705
340,0.010676381278812718,0.0954141578477246,0.0075828486433652965,-0.1341356043930194,0.17220996511886383
341,2.162500757120484e-05,0.09177156686993342,0.008553482066427861,-0.14921396917955926,0.14537434233607818
342,0.004334543930253351,0.1008349095144961,0.01707516257124439,-0.16252885797155595,0.15917784460966175
343,0.002872481536088546,0.10214815232625561,0.004419016104107417,-0.16089291176904638,0.1665613318953565
344,-0.0028807258125985087,0.10942120745695948,-0.013171418274387878,-0.16603661499857314,0.18870934748999482
345,-0.0014684849904176218,0.10607918536755603,-0.004983845443855651,-0.16351256116293122,0.1581881443386381
346,-0.001446467695867307,0.09178841935152877,-0.0031538626291719575,-0.14737598870389335,0.148940617886889
347,0.0008462275220836485,0.0994242228773671,0.002699998118073415,-0.16866604463614115,0.15001638881533
348,0.002444719888009654,0.10298731837214974,2.7245413285302425e-05,-0.16586040733796875,0.1677894076295574
349,-0.0024616631950957553,0.10470755231534601,-0.0014608175447546883,-0.16566123537077826,0.18088567424743354
350,0.004106274093138226,0.106321453926332,0.0012172751821925836,-0.17412518416952494,0.1751092076783358
351,-0.0009108833745396718,0.101775037156873,-0.0008208529885904063,-0.18721968377892848,0.15853849055917965
352,0.006850433962884746,0.10718181397730094,0.004589037778489168,-0.17423374876797842,0.17170679125685323
353,0.010801750254880157,0.0955964637336961,0.006475681310336132,-0.12503270962984572,0.18147697639559382
